digraph Tree {
node [shape=box] ;
0 [label="X[4] <= 50.5\ngini = 0.453\nsamples = 462\nvalue = [302, 160]"] ;
1 [label="X[4] <= 30.5\ngini = 0.344\nsamples = 290\nvalue = [226, 64]"] ;
0 -> 1 [labeldistance=2.5, labelangle=45, headlabel="True"] ;
2 [label="X[0] <= 182.0\ngini = 0.137\nsamples = 108\nvalue = [100, 8]"] ;
1 -> 2 ;
3 [label="X[0] <= 107.0\ngini = 0.122\nsamples = 107\nvalue = [100, 7]"] ;
2 -> 3 ;
4 [label="X[4] <= 19.0\ngini = 0.5\nsamples = 4\nvalue = [2, 2]"] ;
3 -> 4 ;
5 [label="gini = 0.0\nsamples = 2\nvalue = [2, 0]"] ;
4 -> 5 ;
6 [label="gini = 0.0\nsamples = 2\nvalue = [0, 2]"] ;
4 -> 6 ;
7 [label="X[3] <= 19.53\ngini = 0.092\nsamples = 103\nvalue = [98, 5]"] ;
3 -> 7 ;
8 [label="X[4] <= 16.5\ngini = 0.444\nsamples = 9\nvalue = [6, 3]"] ;
7 -> 8 ;
9 [label="gini = 0.0\nsamples = 4\nvalue = [4, 0]"] ;
8 -> 9 ;
10 [label="X[3] <= 18.135\ngini = 0.48\nsamples = 5\nvalue = [2, 3]"] ;
8 -> 10 ;
11 [label="gini = 0.0\nsamples = 2\nvalue = [2, 0]"] ;
10 -> 11 ;
12 [label="gini = 0.0\nsamples = 3\nvalue = [0, 3]"] ;
10 -> 12 ;
13 [label="X[4] <= 29.5\ngini = 0.042\nsamples = 94\nvalue = [92, 2]"] ;
7 -> 13 ;
14 [label="X[4] <= 26.5\ngini = 0.023\nsamples = 87\nvalue = [86, 1]"] ;
13 -> 14 ;
15 [label="gini = 0.0\nsamples = 64\nvalue = [64, 0]"] ;
14 -> 15 ;
16 [label="X[3] <= 24.41\ngini = 0.083\nsamples = 23\nvalue = [22, 1]"] ;
14 -> 16 ;
17 [label="X[3] <= 23.895\ngini = 0.278\nsamples = 6\nvalue = [5, 1]"] ;
16 -> 17 ;
18 [label="gini = 0.0\nsamples = 5\nvalue = [5, 0]"] ;
17 -> 18 ;
19 [label="gini = 0.0\nsamples = 1\nvalue = [0, 1]"] ;
17 -> 19 ;
20 [label="gini = 0.0\nsamples = 17\nvalue = [17, 0]"] ;
16 -> 20 ;
21 [label="X[0] <= 130.0\ngini = 0.245\nsamples = 7\nvalue = [6, 1]"] ;
13 -> 21 ;
22 [label="gini = 0.0\nsamples = 4\nvalue = [4, 0]"] ;
21 -> 22 ;
23 [label="X[1] <= 3.565\ngini = 0.444\nsamples = 3\nvalue = [2, 1]"] ;
21 -> 23 ;
24 [label="gini = 0.0\nsamples = 2\nvalue = [2, 0]"] ;
23 -> 24 ;
25 [label="gini = 0.0\nsamples = 1\nvalue = [0, 1]"] ;
23 -> 25 ;
26 [label="gini = 0.0\nsamples = 1\nvalue = [0, 1]"] ;
2 -> 26 ;
27 [label="X[1] <= 3.34\ngini = 0.426\nsamples = 182\nvalue = [126, 56]"] ;
1 -> 27 ;
28 [label="X[3] <= 25.595\ngini = 0.26\nsamples = 39\nvalue = [33, 6]"] ;
27 -> 28 ;
29 [label="X[0] <= 149.0\ngini = 0.408\nsamples = 21\nvalue = [15, 6]"] ;
28 -> 29 ;
30 [label="X[1] <= 1.675\ngini = 0.332\nsamples = 19\nvalue = [15, 4]"] ;
29 -> 30 ;
31 [label="gini = 0.0\nsamples = 1\nvalue = [0, 1]"] ;
30 -> 31 ;
32 [label="X[3] <= 25.22\ngini = 0.278\nsamples = 18\nvalue = [15, 3]"] ;
30 -> 32 ;
33 [label="X[1] <= 3.17\ngini = 0.208\nsamples = 17\nvalue = [15, 2]"] ;
32 -> 33 ;
34 [label="gini = 0.0\nsamples = 10\nvalue = [10, 0]"] ;
33 -> 34 ;
35 [label="X[0] <= 137.0\ngini = 0.408\nsamples = 7\nvalue = [5, 2]"] ;
33 -> 35 ;
36 [label="X[1] <= 3.19\ngini = 0.278\nsamples = 6\nvalue = [5, 1]"] ;
35 -> 36 ;
37 [label="gini = 0.0\nsamples = 1\nvalue = [0, 1]"] ;
36 -> 37 ;
38 [label="gini = 0.0\nsamples = 5\nvalue = [5, 0]"] ;
36 -> 38 ;
39 [label="gini = 0.0\nsamples = 1\nvalue = [0, 1]"] ;
35 -> 39 ;
40 [label="gini = 0.0\nsamples = 1\nvalue = [0, 1]"] ;
32 -> 40 ;
41 [label="gini = 0.0\nsamples = 2\nvalue = [0, 2]"] ;
29 -> 41 ;
42 [label="gini = 0.0\nsamples = 18\nvalue = [18, 0]"] ;
28 -> 42 ;
43 [label="X[2] <= 0.5\ngini = 0.455\nsamples = 143\nvalue = [93, 50]"] ;
27 -> 43 ;
44 [label="X[0] <= 135.0\ngini = 0.393\nsamples = 82\nvalue = [60, 22]"] ;
43 -> 44 ;
45 [label="X[3] <= 21.095\ngini = 0.24\nsamples = 43\nvalue = [37, 6]"] ;
44 -> 45 ;
46 [label="X[0] <= 130.0\ngini = 0.444\nsamples = 3\nvalue = [1, 2]"] ;
45 -> 46 ;
47 [label="gini = 0.0\nsamples = 2\nvalue = [0, 2]"] ;
46 -> 47 ;
48 [label="gini = 0.0\nsamples = 1\nvalue = [1, 0]"] ;
46 -> 48 ;
49 [label="X[4] <= 37.5\ngini = 0.18\nsamples = 40\nvalue = [36, 4]"] ;
45 -> 49 ;
50 [label="gini = 0.0\nsamples = 15\nvalue = [15, 0]"] ;
49 -> 50 ;
51 [label="X[3] <= 25.06\ngini = 0.269\nsamples = 25\nvalue = [21, 4]"] ;
49 -> 51 ;
52 [label="gini = 0.0\nsamples = 6\nvalue = [6, 0]"] ;
51 -> 52 ;
53 [label="X[3] <= 25.23\ngini = 0.332\nsamples = 19\nvalue = [15, 4]"] ;
51 -> 53 ;
54 [label="gini = 0.0\nsamples = 1\nvalue = [0, 1]"] ;
53 -> 54 ;
55 [label="X[4] <= 38.5\ngini = 0.278\nsamples = 18\nvalue = [15, 3]"] ;
53 -> 55 ;
56 [label="X[3] <= 30.185\ngini = 0.5\nsamples = 2\nvalue = [1, 1]"] ;
55 -> 56 ;
57 [label="gini = 0.0\nsamples = 1\nvalue = [0, 1]"] ;
56 -> 57 ;
58 [label="gini = 0.0\nsamples = 1\nvalue = [1, 0]"] ;
56 -> 58 ;
59 [label="X[0] <= 125.0\ngini = 0.219\nsamples = 16\nvalue = [14, 2]"] ;
55 -> 59 ;
60 [label="gini = 0.0\nsamples = 8\nvalue = [8, 0]"] ;
59 -> 60 ;
61 [label="X[1] <= 6.28\ngini = 0.375\nsamples = 8\nvalue = [6, 2]"] ;
59 -> 61 ;
62 [label="X[3] <= 26.185\ngini = 0.245\nsamples = 7\nvalue = [6, 1]"] ;
61 -> 62 ;
63 [label="X[0] <= 130.5\ngini = 0.5\nsamples = 2\nvalue = [1, 1]"] ;
62 -> 63 ;
64 [label="gini = 0.0\nsamples = 1\nvalue = [1, 0]"] ;
63 -> 64 ;
65 [label="gini = 0.0\nsamples = 1\nvalue = [0, 1]"] ;
63 -> 65 ;
66 [label="gini = 0.0\nsamples = 5\nvalue = [5, 0]"] ;
62 -> 66 ;
67 [label="gini = 0.0\nsamples = 1\nvalue = [0, 1]"] ;
61 -> 67 ;
68 [label="X[0] <= 142.5\ngini = 0.484\nsamples = 39\nvalue = [23, 16]"] ;
44 -> 68 ;
69 [label="X[3] <= 21.76\ngini = 0.48\nsamples = 15\nvalue = [6, 9]"] ;
68 -> 69 ;
70 [label="gini = 0.0\nsamples = 2\nvalue = [2, 0]"] ;
69 -> 70 ;
71 [label="X[4] <= 47.0\ngini = 0.426\nsamples = 13\nvalue = [4, 9]"] ;
69 -> 71 ;
72 [label="X[1] <= 6.865\ngini = 0.298\nsamples = 11\nvalue = [2, 9]"] ;
71 -> 72 ;
73 [label="X[1] <= 4.245\ngini = 0.18\nsamples = 10\nvalue = [1, 9]"] ;
72 -> 73 ;
74 [label="gini = 0.0\nsamples = 5\nvalue = [0, 5]"] ;
73 -> 74 ;
75 [label="X[4] <= 36.0\ngini = 0.32\nsamples = 5\nvalue = [1, 4]"] ;
73 -> 75 ;
76 [label="gini = 0.0\nsamples = 4\nvalue = [0, 4]"] ;
75 -> 76 ;
77 [label="gini = 0.0\nsamples = 1\nvalue = [1, 0]"] ;
75 -> 77 ;
78 [label="gini = 0.0\nsamples = 1\nvalue = [1, 0]"] ;
72 -> 78 ;
79 [label="gini = 0.0\nsamples = 2\nvalue = [2, 0]"] ;
71 -> 79 ;
80 [label="X[3] <= 28.955\ngini = 0.413\nsamples = 24\nvalue = [17, 7]"] ;
68 -> 80 ;
81 [label="X[3] <= 27.975\ngini = 0.465\nsamples = 19\nvalue = [12, 7]"] ;
80 -> 81 ;
82 [label="X[4] <= 42.5\ngini = 0.375\nsamples = 16\nvalue = [12, 4]"] ;
81 -> 82 ;
83 [label="gini = 0.0\nsamples = 7\nvalue = [7, 0]"] ;
82 -> 83 ;
84 [label="X[0] <= 169.0\ngini = 0.494\nsamples = 9\nvalue = [5, 4]"] ;
82 -> 84 ;
85 [label="X[3] <= 22.78\ngini = 0.408\nsamples = 7\nvalue = [5, 2]"] ;
84 -> 85 ;
86 [label="gini = 0.0\nsamples = 1\nvalue = [0, 1]"] ;
85 -> 86 ;
87 [label="X[0] <= 147.0\ngini = 0.278\nsamples = 6\nvalue = [5, 1]"] ;
85 -> 87 ;
88 [label="gini = 0.0\nsamples = 1\nvalue = [0, 1]"] ;
87 -> 88 ;
89 [label="gini = 0.0\nsamples = 5\nvalue = [5, 0]"] ;
87 -> 89 ;
90 [label="gini = 0.0\nsamples = 2\nvalue = [0, 2]"] ;
84 -> 90 ;
91 [label="gini = 0.0\nsamples = 3\nvalue = [0, 3]"] ;
81 -> 91 ;
92 [label="gini = 0.0\nsamples = 5\nvalue = [5, 0]"] ;
80 -> 92 ;
93 [label="X[0] <= 117.0\ngini = 0.497\nsamples = 61\nvalue = [33, 28]"] ;
43 -> 93 ;
94 [label="X[1] <= 6.32\ngini = 0.278\nsamples = 6\nvalue = [1, 5]"] ;
93 -> 94 ;
95 [label="X[0] <= 105.0\ngini = 0.5\nsamples = 2\nvalue = [1, 1]"] ;
94 -> 95 ;
96 [label="gini = 0.0\nsamples = 1\nvalue = [0, 1]"] ;
95 -> 96 ;
97 [label="gini = 0.0\nsamples = 1\nvalue = [1, 0]"] ;
95 -> 97 ;
98 [label="gini = 0.0\nsamples = 4\nvalue = [0, 4]"] ;
94 -> 98 ;
99 [label="X[1] <= 10.995\ngini = 0.487\nsamples = 55\nvalue = [32, 23]"] ;
93 -> 99 ;
100 [label="X[3] <= 21.86\ngini = 0.478\nsamples = 53\nvalue = [32, 21]"] ;
99 -> 100 ;
101 [label="gini = 0.0\nsamples = 2\nvalue = [0, 2]"] ;
100 -> 101 ;
102 [label="X[3] <= 24.26\ngini = 0.468\nsamples = 51\nvalue = [32, 19]"] ;
100 -> 102 ;
103 [label="X[4] <= 40.5\ngini = 0.165\nsamples = 11\nvalue = [10, 1]"] ;
102 -> 103 ;
104 [label="X[0] <= 133.0\ngini = 0.444\nsamples = 3\nvalue = [2, 1]"] ;
103 -> 104 ;
105 [label="gini = 0.0\nsamples = 2\nvalue = [2, 0]"] ;
104 -> 105 ;
106 [label="gini = 0.0\nsamples = 1\nvalue = [0, 1]"] ;
104 -> 106 ;
107 [label="gini = 0.0\nsamples = 8\nvalue = [8, 0]"] ;
103 -> 107 ;
108 [label="X[3] <= 26.0\ngini = 0.495\nsamples = 40\nvalue = [22, 18]"] ;
102 -> 108 ;
109 [label="X[0] <= 137.0\ngini = 0.42\nsamples = 10\nvalue = [3, 7]"] ;
108 -> 109 ;
110 [label="gini = 0.0\nsamples = 6\nvalue = [0, 6]"] ;
109 -> 110 ;
111 [label="X[1] <= 7.25\ngini = 0.375\nsamples = 4\nvalue = [3, 1]"] ;
109 -> 111 ;
112 [label="gini = 0.0\nsamples = 3\nvalue = [3, 0]"] ;
111 -> 112 ;
113 [label="gini = 0.0\nsamples = 1\nvalue = [0, 1]"] ;
111 -> 113 ;
114 [label="X[1] <= 4.725\ngini = 0.464\nsamples = 30\nvalue = [19, 11]"] ;
108 -> 114 ;
115 [label="gini = 0.0\nsamples = 6\nvalue = [6, 0]"] ;
114 -> 115 ;
116 [label="X[3] <= 31.215\ngini = 0.497\nsamples = 24\nvalue = [13, 11]"] ;
114 -> 116 ;
117 [label="X[4] <= 40.0\ngini = 0.43\nsamples = 16\nvalue = [11, 5]"] ;
116 -> 117 ;
118 [label="gini = 0.0\nsamples = 4\nvalue = [4, 0]"] ;
117 -> 118 ;
119 [label="X[0] <= 134.0\ngini = 0.486\nsamples = 12\nvalue = [7, 5]"] ;
117 -> 119 ;
120 [label="X[4] <= 41.5\ngini = 0.32\nsamples = 5\nvalue = [4, 1]"] ;
119 -> 120 ;
121 [label="gini = 0.0\nsamples = 1\nvalue = [0, 1]"] ;
120 -> 121 ;
122 [label="gini = 0.0\nsamples = 4\nvalue = [4, 0]"] ;
120 -> 122 ;
123 [label="X[3] <= 28.785\ngini = 0.49\nsamples = 7\nvalue = [3, 4]"] ;
119 -> 123 ;
124 [label="gini = 0.0\nsamples = 3\nvalue = [0, 3]"] ;
123 -> 124 ;
125 [label="X[4] <= 48.0\ngini = 0.375\nsamples = 4\nvalue = [3, 1]"] ;
123 -> 125 ;
126 [label="gini = 0.0\nsamples = 3\nvalue = [3, 0]"] ;
125 -> 126 ;
127 [label="gini = 0.0\nsamples = 1\nvalue = [0, 1]"] ;
125 -> 127 ;
128 [label="X[1] <= 7.08\ngini = 0.375\nsamples = 8\nvalue = [2, 6]"] ;
116 -> 128 ;
129 [label="gini = 0.0\nsamples = 6\nvalue = [0, 6]"] ;
128 -> 129 ;
130 [label="gini = 0.0\nsamples = 2\nvalue = [2, 0]"] ;
128 -> 130 ;
131 [label="gini = 0.0\nsamples = 2\nvalue = [0, 2]"] ;
99 -> 131 ;
132 [label="X[2] <= 0.5\ngini = 0.493\nsamples = 172\nvalue = [76, 96]"] ;
0 -> 132 [labeldistance=2.5, labelangle=-45, headlabel="False"] ;
133 [label="X[1] <= 10.34\ngini = 0.481\nsamples = 82\nvalue = [49, 33]"] ;
132 -> 133 ;
134 [label="X[1] <= 2.445\ngini = 0.471\nsamples = 79\nvalue = [49, 30]"] ;
133 -> 134 ;
135 [label="gini = 0.0\nsamples = 6\nvalue = [6, 0]"] ;
134 -> 135 ;
136 [label="X[1] <= 5.49\ngini = 0.484\nsamples = 73\nvalue = [43, 30]"] ;
134 -> 136 ;
137 [label="X[0] <= 181.0\ngini = 0.5\nsamples = 47\nvalue = [24, 23]"] ;
136 -> 137 ;
138 [label="X[0] <= 156.0\ngini = 0.496\nsamples = 44\nvalue = [24, 20]"] ;
137 -> 138 ;
139 [label="X[3] <= 28.86\ngini = 0.489\nsamples = 33\nvalue = [14, 19]"] ;
138 -> 139 ;
140 [label="X[1] <= 4.975\ngini = 0.499\nsamples = 27\nvalue = [14, 13]"] ;
139 -> 140 ;
141 [label="X[3] <= 19.42\ngini = 0.476\nsamples = 23\nvalue = [14, 9]"] ;
140 -> 141 ;
142 [label="gini = 0.0\nsamples = 2\nvalue = [0, 2]"] ;
141 -> 142 ;
143 [label="X[0] <= 146.0\ngini = 0.444\nsamples = 21\nvalue = [14, 7]"] ;
141 -> 143 ;
144 [label="X[0] <= 110.0\ngini = 0.388\nsamples = 19\nvalue = [14, 5]"] ;
143 -> 144 ;
145 [label="X[1] <= 4.62\ngini = 0.444\nsamples = 3\nvalue = [1, 2]"] ;
144 -> 145 ;
146 [label="gini = 0.0\nsamples = 2\nvalue = [0, 2]"] ;
145 -> 146 ;
147 [label="gini = 0.0\nsamples = 1\nvalue = [1, 0]"] ;
145 -> 147 ;
148 [label="X[0] <= 129.0\ngini = 0.305\nsamples = 16\nvalue = [13, 3]"] ;
144 -> 148 ;
149 [label="gini = 0.0\nsamples = 6\nvalue = [6, 0]"] ;
148 -> 149 ;
150 [label="X[1] <= 4.185\ngini = 0.42\nsamples = 10\nvalue = [7, 3]"] ;
148 -> 150 ;
151 [label="X[3] <= 22.13\ngini = 0.5\nsamples = 6\nvalue = [3, 3]"] ;
150 -> 151 ;
152 [label="gini = 0.0\nsamples = 2\nvalue = [2, 0]"] ;
151 -> 152 ;
153 [label="X[3] <= 28.515\ngini = 0.375\nsamples = 4\nvalue = [1, 3]"] ;
151 -> 153 ;
154 [label="gini = 0.0\nsamples = 3\nvalue = [0, 3]"] ;
153 -> 154 ;
155 [label="gini = 0.0\nsamples = 1\nvalue = [1, 0]"] ;
153 -> 155 ;
156 [label="gini = 0.0\nsamples = 4\nvalue = [4, 0]"] ;
150 -> 156 ;
157 [label="gini = 0.0\nsamples = 2\nvalue = [0, 2]"] ;
143 -> 157 ;
158 [label="gini = 0.0\nsamples = 4\nvalue = [0, 4]"] ;
140 -> 158 ;
159 [label="gini = 0.0\nsamples = 6\nvalue = [0, 6]"] ;
139 -> 159 ;
160 [label="X[3] <= 21.885\ngini = 0.165\nsamples = 11\nvalue = [10, 1]"] ;
138 -> 160 ;
161 [label="gini = 0.0\nsamples = 1\nvalue = [0, 1]"] ;
160 -> 161 ;
162 [label="gini = 0.0\nsamples = 10\nvalue = [10, 0]"] ;
160 -> 162 ;
163 [label="gini = 0.0\nsamples = 3\nvalue = [0, 3]"] ;
137 -> 163 ;
164 [label="X[0] <= 145.0\ngini = 0.393\nsamples = 26\nvalue = [19, 7]"] ;
136 -> 164 ;
165 [label="X[3] <= 29.365\ngini = 0.18\nsamples = 10\nvalue = [9, 1]"] ;
164 -> 165 ;
166 [label="gini = 0.0\nsamples = 8\nvalue = [8, 0]"] ;
165 -> 166 ;
167 [label="X[3] <= 30.325\ngini = 0.5\nsamples = 2\nvalue = [1, 1]"] ;
165 -> 167 ;
168 [label="gini = 0.0\nsamples = 1\nvalue = [0, 1]"] ;
167 -> 168 ;
169 [label="gini = 0.0\nsamples = 1\nvalue = [1, 0]"] ;
167 -> 169 ;
170 [label="X[0] <= 147.0\ngini = 0.469\nsamples = 16\nvalue = [10, 6]"] ;
164 -> 170 ;
171 [label="gini = 0.0\nsamples = 2\nvalue = [0, 2]"] ;
170 -> 171 ;
172 [label="X[3] <= 24.475\ngini = 0.408\nsamples = 14\nvalue = [10, 4]"] ;
170 -> 172 ;
173 [label="gini = 0.0\nsamples = 1\nvalue = [0, 1]"] ;
172 -> 173 ;
174 [label="X[3] <= 30.655\ngini = 0.355\nsamples = 13\nvalue = [10, 3]"] ;
172 -> 174 ;
175 [label="X[1] <= 9.29\ngini = 0.198\nsamples = 9\nvalue = [8, 1]"] ;
174 -> 175 ;
176 [label="gini = 0.0\nsamples = 8\nvalue = [8, 0]"] ;
175 -> 176 ;
177 [label="gini = 0.0\nsamples = 1\nvalue = [0, 1]"] ;
175 -> 177 ;
178 [label="X[1] <= 5.765\ngini = 0.5\nsamples = 4\nvalue = [2, 2]"] ;
174 -> 178 ;
179 [label="gini = 0.0\nsamples = 1\nvalue = [1, 0]"] ;
178 -> 179 ;
180 [label="X[1] <= 9.13\ngini = 0.444\nsamples = 3\nvalue = [1, 2]"] ;
178 -> 180 ;
181 [label="gini = 0.0\nsamples = 2\nvalue = [0, 2]"] ;
180 -> 181 ;
182 [label="gini = 0.0\nsamples = 1\nvalue = [1, 0]"] ;
180 -> 182 ;
183 [label="gini = 0.0\nsamples = 3\nvalue = [0, 3]"] ;
133 -> 183 ;
184 [label="X[1] <= 4.99\ngini = 0.42\nsamples = 90\nvalue = [27, 63]"] ;
132 -> 184 ;
185 [label="X[0] <= 129.0\ngini = 0.497\nsamples = 39\nvalue = [18, 21]"] ;
184 -> 185 ;
186 [label="X[0] <= 116.0\ngini = 0.346\nsamples = 9\nvalue = [7, 2]"] ;
185 -> 186 ;
187 [label="X[4] <= 55.5\ngini = 0.444\nsamples = 3\nvalue = [1, 2]"] ;
186 -> 187 ;
188 [label="gini = 0.0\nsamples = 1\nvalue = [1, 0]"] ;
187 -> 188 ;
189 [label="gini = 0.0\nsamples = 2\nvalue = [0, 2]"] ;
187 -> 189 ;
190 [label="gini = 0.0\nsamples = 6\nvalue = [6, 0]"] ;
186 -> 190 ;
191 [label="X[1] <= 3.99\ngini = 0.464\nsamples = 30\nvalue = [11, 19]"] ;
185 -> 191 ;
192 [label="X[1] <= 2.44\ngini = 0.245\nsamples = 14\nvalue = [2, 12]"] ;
191 -> 192 ;
193 [label="gini = 0.0\nsamples = 2\nvalue = [2, 0]"] ;
192 -> 193 ;
194 [label="gini = 0.0\nsamples = 12\nvalue = [0, 12]"] ;
192 -> 194 ;
195 [label="X[0] <= 135.0\ngini = 0.492\nsamples = 16\nvalue = [9, 7]"] ;
191 -> 195 ;
196 [label="gini = 0.0\nsamples = 3\nvalue = [0, 3]"] ;
195 -> 196 ;
197 [label="X[1] <= 4.345\ngini = 0.426\nsamples = 13\nvalue = [9, 4]"] ;
195 -> 197 ;
198 [label="gini = 0.0\nsamples = 6\nvalue = [6, 0]"] ;
197 -> 198 ;
199 [label="X[4] <= 59.5\ngini = 0.49\nsamples = 7\nvalue = [3, 4]"] ;
197 -> 199 ;
200 [label="X[4] <= 55.0\ngini = 0.375\nsamples = 4\nvalue = [3, 1]"] ;
199 -> 200 ;
201 [label="gini = 0.0\nsamples = 1\nvalue = [0, 1]"] ;
200 -> 201 ;
202 [label="gini = 0.0\nsamples = 3\nvalue = [3, 0]"] ;
200 -> 202 ;
203 [label="gini = 0.0\nsamples = 3\nvalue = [0, 3]"] ;
199 -> 203 ;
204 [label="X[0] <= 121.5\ngini = 0.291\nsamples = 51\nvalue = [9, 42]"] ;
184 -> 204 ;
205 [label="X[1] <= 6.345\ngini = 0.444\nsamples = 3\nvalue = [2, 1]"] ;
204 -> 205 ;
206 [label="gini = 0.0\nsamples = 2\nvalue = [2, 0]"] ;
205 -> 206 ;
207 [label="gini = 0.0\nsamples = 1\nvalue = [0, 1]"] ;
205 -> 207 ;
208 [label="X[3] <= 38.875\ngini = 0.249\nsamples = 48\nvalue = [7, 41]"] ;
204 -> 208 ;
209 [label="X[4] <= 59.5\ngini = 0.223\nsamples = 47\nvalue = [6, 41]"] ;
208 -> 209 ;
210 [label="X[1] <= 5.555\ngini = 0.114\nsamples = 33\nvalue = [2, 31]"] ;
209 -> 210 ;
211 [label="X[0] <= 147.0\ngini = 0.346\nsamples = 9\nvalue = [2, 7]"] ;
210 -> 211 ;
212 [label="X[4] <= 57.0\ngini = 0.444\nsamples = 3\nvalue = [2, 1]"] ;
211 -> 212 ;
213 [label="gini = 0.0\nsamples = 2\nvalue = [2, 0]"] ;
212 -> 213 ;
214 [label="gini = 0.0\nsamples = 1\nvalue = [0, 1]"] ;
212 -> 214 ;
215 [label="gini = 0.0\nsamples = 6\nvalue = [0, 6]"] ;
211 -> 215 ;
216 [label="gini = 0.0\nsamples = 24\nvalue = [0, 24]"] ;
210 -> 216 ;
217 [label="X[1] <= 6.575\ngini = 0.408\nsamples = 14\nvalue = [4, 10]"] ;
209 -> 217 ;
218 [label="gini = 0.0\nsamples = 5\nvalue = [0, 5]"] ;
217 -> 218 ;
219 [label="X[1] <= 6.82\ngini = 0.494\nsamples = 9\nvalue = [4, 5]"] ;
217 -> 219 ;
220 [label="gini = 0.0\nsamples = 3\nvalue = [3, 0]"] ;
219 -> 220 ;
221 [label="X[3] <= 30.035\ngini = 0.278\nsamples = 6\nvalue = [1, 5]"] ;
219 -> 221 ;
222 [label="gini = 0.0\nsamples = 5\nvalue = [0, 5]"] ;
221 -> 222 ;
223 [label="gini = 0.0\nsamples = 1\nvalue = [1, 0]"] ;
221 -> 223 ;
224 [label="gini = 0.0\nsamples = 1\nvalue = [1, 0]"] ;
208 -> 224 ;
}